<?xml version="1.0"?>
<opencv_storage>
<cascade>
  <stageType>BOOST</stageType>
  <featureType>HAAR</featureType>
  <height>24</height>
  <width>24</width>
  <stageParams>
    <boostType>GAB</boostType>
    <minHitRate>9.9500000476837158e-01</minHitRate>
    <maxFalseAlarm>5.0000000000000000e-01</maxFalseAlarm>
    <weightTrimRate>9.4999999999999996e-01</weightTrimRate>
    <maxDepth>1</maxDepth>
    <maxWeakCount>100</maxWeakCount></stageParams>
  <featureParams>
    <maxCatCount>0</maxCatCount>
    <featSize>1</featSize>
    <mode>ALL</mode></featureParams>
  <stageNum>9</stageNum>
  <stages>
    <!-- stage 0 -->
    <_>
      <maxWeakCount>3</maxWeakCount>
      <stageThreshold>-1.2090618610382080e+00</stageThreshold>
      <weakClassifiers>
        <_>
          <internalNodes>
            0 -1 41 -5.8469984680414200e-02</internalNodes>
          <leafValues>
            7.7418017387390137e-01 -8.5739541053771973e-01</leafValues></_>
        <_>
          <internalNodes>
            0 -1 55 -6.4387679100036621e-02</internalNodes>
          <leafValues>
            6.3854628801345825e-01 -8.4516233205795288e-01</leafValues></_>
        <_>
          <internalNodes>
            0 -1 9 4.8568174242973328e-03</internalNodes>
          <leafValues>
            -8.8966315984725952e-01 4.9349591135978699e-01</leafValues></_></weakClassifiers></_>
    <!-- stage 1 -->
    <_>
      <maxWeakCount>4</maxWeakCount>
      <stageThreshold>-9.2472052574157715e-01</stageThreshold>
      <weakClassifiers>
        <_>
          <internalNodes>
            0 -1 13 -2.4876374751329422e-02</internalNodes>
          <leafValues>
            6.7381972074508667e-01 -7.8723406791687012e-01</leafValues></_>
        <_>
          <internalNodes>
            0 -1 31 1.4711362382513471e-05</internalNodes>
          <leafValues>
            -9.0693581104278564e-01 4.1959971189498901e-01</leafValues></_>
        <_>
          <internalNodes>
            0 -1 46 -7.9250842332839966e-02</internalNodes>
          <leafValues>
            4.0835791826248169e-01 -8.2023292779922485e-01</leafValues></_>
        <_>
          <internalNodes>
            0 -1 56 -1.4665950402559247e-05</internalNodes>
          <leafValues>
            3.6109140515327454e-01 -7.8409266471862793e-01</leafValues></_></weakClassifiers></_>
    <!-- stage 2 -->
    <_>
      <maxWeakCount>5</maxWeakCount>
      <stageThreshold>-1.6080589294433594e+00</stageThreshold>
      <weakClassifiers>
        <_>
          <internalNodes>
            0 -1 28 -1.6845716536045074e-01</internalNodes>
          <leafValues>
            6.0564583539962769e-01 -7.5862067937850952e-01</leafValues></_>
        <_>
          <internalNodes>
            0 -1 47 -4.1369281709194183e-02</internalNodes>
          <leafValues>
            3.1455308198928833e-01 -7.6827383041381836e-01</leafValues></_>
        <_>
          <internalNodes>
            0 -1 62 -4.0746066719293594e-02</internalNodes>
          <leafValues>
            3.4279191493988037e-01 -7.6719552278518677e-01</leafValues></_>
        <_>
          <internalNodes>
            0 -1 44 -4.7341577010229230e-04</internalNodes>
          <leafValues>
            4.3844443559646606e-01 -6.0360723733901978e-01</leafValues></_>
        <_>
          <internalNodes>
            0 -1 54 -1.5603118299623020e-05</internalNodes>
          <leafValues>
            2.4758666753768921e-01 -8.7264579534530640e-01</leafValues></_></weakClassifiers></_>
    <!-- stage 3 -->
    <_>
      <maxWeakCount>6</maxWeakCount>
      <stageThreshold>-1.4482522010803223e+00</stageThreshold>
      <weakClassifiers>
        <_>
          <internalNodes>
            0 -1 35 -3.9143329486250877e-03</internalNodes>
          <leafValues>
            3.8651606440544128e-01 -7.7030211687088013e-01</leafValues></_>
        <_>
          <internalNodes>
            0 -1 5 -3.3563293516635895e-02</internalNodes>
          <leafValues>
            4.2877724766731262e-01 -6.3868433237075806e-01</leafValues></_>
        <_>
          <internalNodes>
            0 -1 59 -8.8731005787849426e-02</internalNodes>
          <leafValues>
            3.7693148851394653e-01 -6.8251979351043701e-01</leafValues></_>
        <_>
          <internalNodes>
            0 -1 29 -1.5086450148373842e-03</internalNodes>
          <leafValues>
            -8.3989655971527100e-01 2.2273668646812439e-01</leafValues></_>
        <_>
          <internalNodes>
            0 -1 50 -1.4104676665738225e-05</internalNodes>
          <leafValues>
            2.2836349904537201e-01 -9.0530610084533691e-01</leafValues></_>
        <_>
          <internalNodes>
            0 -1 39 -1.3994260370964184e-05</internalNodes>
          <leafValues>
            1.9533580541610718e-01 -8.6447101831436157e-01</leafValues></_></weakClassifiers></_>
    <!-- stage 4 -->
    <_>
      <maxWeakCount>7</maxWeakCount>
      <stageThreshold>-1.7850621938705444e+00</stageThreshold>
      <weakClassifiers>
        <_>
          <internalNodes>
            0 -1 37 -1.2237296998500824e-01</internalNodes>
          <leafValues>
            5.7042956352233887e-01 -6.6242271661758423e-01</leafValues></_>
        <_>
          <internalNodes>
            0 -1 32 -3.4344401210546494e-03</internalNodes>
          <leafValues>
            4.4984039664268494e-01 -5.6951862573623657e-01</leafValues></_>
        <_>
          <internalNodes>
            0 -1 6 -1.2279583513736725e-01</internalNodes>
          <leafValues>
            4.9779763817787170e-01 -5.0937050580978394e-01</leafValues></_>
        <_>
          <internalNodes>
            0 -1 57 -1.0338895954191685e-03</internalNodes>
          <leafValues>
            2.9338341951370239e-01 -7.4714148044586182e-01</leafValues></_>
        <_>
          <internalNodes>
            0 -1 16 6.9456279743462801e-04</internalNodes>
          <leafValues>
            1.7297735810279846e-01 -8.1535536050796509e-01</leafValues></_>
        <_>
          <internalNodes>
            0 -1 58 -1.3886238775739912e-05</internalNodes>
          <leafValues>
            2.5689470767974854e-01 -6.3993257284164429e-01</leafValues></_>
        <_>
          <internalNodes>
            0 -1 23 -3.0934310052543879e-04</internalNodes>
          <leafValues>
            -7.7582484483718872e-01 1.6317817568778992e-01</leafValues></_></weakClassifiers></_>
    <!-- stage 5 -->
    <_>
      <maxWeakCount>9</maxWeakCount>
      <stageThreshold>-1.7377716302871704e+00</stageThreshold>
      <weakClassifiers>
        <_>
          <internalNodes>
            0 -1 26 -9.3802111223340034e-03</internalNodes>
          <leafValues>
            3.7777778506278992e-01 -6.9317269325256348e-01</leafValues></_>
        <_>
          <internalNodes>
            0 -1 43 -1.8679092824459076e-01</internalNodes>
          <leafValues>
            4.2578858137130737e-01 -5.7592660188674927e-01</leafValues></_>
        <_>
          <internalNodes>
            0 -1 48 -2.9136870056390762e-02</internalNodes>
          <leafValues>
            2.4234180152416229e-01 -6.9721370935440063e-01</leafValues></_>
        <_>
          <internalNodes>
            0 -1 42 1.3994260370964184e-05</internalNodes>
          <leafValues>
            -6.1176794767379761e-01 2.8767111897468567e-01</leafValues></_>
        <_>
          <internalNodes>
            0 -1 7 2.3946156725287437e-03</internalNodes>
          <leafValues>
            1.7251707613468170e-01 -7.8279894590377808e-01</leafValues></_>
        <_>
          <internalNodes>
            0 -1 64 -1.5538131818175316e-02</internalNodes>
          <leafValues>
            2.1111354231834412e-01 -7.0624548196792603e-01</leafValues></_>
        <_>
          <internalNodes>
            0 -1 0 2.2826358326710761e-04</internalNodes>
          <leafValues>
            1.7322325706481934e-01 -7.1704804897308350e-01</leafValues></_>
        <_>
          <internalNodes>
            0 -1 10 3.8881034124642611e-03</internalNodes>
          <leafValues>
            1.2471976131200790e-01 -8.8625967502593994e-01</leafValues></_>
        <_>
          <internalNodes>
            0 -1 58 -1.3886238775739912e-05</internalNodes>
          <leafValues>
            1.5873564779758453e-01 -6.3674730062484741e-01</leafValues></_></weakClassifiers></_>
    <!-- stage 6 -->
    <_>
      <maxWeakCount>8</maxWeakCount>
      <stageThreshold>-1.3937306404113770e+00</stageThreshold>
      <weakClassifiers>
        <_>
          <internalNodes>
            0 -1 40 1.0130873322486877e-01</internalNodes>
          <leafValues>
            -5.4567503929138184e-01 6.6539925336837769e-01</leafValues></_>
        <_>
          <internalNodes>
            0 -1 1 -1.1809679269790649e+00</internalNodes>
          <leafValues>
            6.0974997282028198e-01 -3.8583940267562866e-01</leafValues></_>
        <_>
          <internalNodes>
            0 -1 25 -1.1834918041131459e-05</internalNodes>
          <leafValues>
            4.2296299338340759e-01 -5.3526169061660767e-01</leafValues></_>
        <_>
          <internalNodes>
            0 -1 38 2.6642129523679614e-04</internalNodes>
          <leafValues>
            -7.5525492429733276e-01 1.9998311996459961e-01</leafValues></_>
        <_>
          <internalNodes>
            0 -1 24 -1.7004320397973061e-05</internalNodes>
          <leafValues>
            1.6399580240249634e-01 -8.3681482076644897e-01</leafValues></_>
        <_>
          <internalNodes>
            0 -1 19 -1.5190445992629975e-05</internalNodes>
          <leafValues>
            1.7635153234004974e-01 -7.0521146059036255e-01</leafValues></_>
        <_>
          <internalNodes>
            0 -1 3 -1.1826829984784126e-02</internalNodes>
          <leafValues>
            -6.5778088569641113e-01 1.9988530874252319e-01</leafValues></_>
        <_>
          <internalNodes>
            0 -1 27 -4.9878988647833467e-05</internalNodes>
          <leafValues>
            2.8806778788566589e-01 -4.7859197854995728e-01</leafValues></_></weakClassifiers></_>
    <!-- stage 7 -->
    <_>
      <maxWeakCount>10</maxWeakCount>
      <stageThreshold>-1.3559238910675049e+00</stageThreshold>
      <weakClassifiers>
        <_>
          <internalNodes>
            0 -1 30 1.2862366437911987e-01</internalNodes>
          <leafValues>
            -5.4131054878234863e-01 7.7834177017211914e-01</leafValues></_>
        <_>
          <internalNodes>
            0 -1 34 -1.2585609511006624e-05</internalNodes>
          <leafValues>
            3.0008891224861145e-01 -6.0703521966934204e-01</leafValues></_>
        <_>
          <internalNodes>
            0 -1 49 9.9074855446815491e-02</internalNodes>
          <leafValues>
            -3.7743979692459106e-01 4.7027391195297241e-01</leafValues></_>
        <_>
          <internalNodes>
            0 -1 2 -2.3635876178741455e-01</internalNodes>
          <leafValues>
            2.1652068197727203e-01 -7.2488570213317871e-01</leafValues></_>
        <_>
          <internalNodes>
            0 -1 14 1.3862758874893188e-02</internalNodes>
          <leafValues>
            1.8497011065483093e-01 -7.9890292882919312e-01</leafValues></_>
        <_>
          <internalNodes>
            0 -1 20 -2.0866859704256058e-03</internalNodes>
          <leafValues>
            1.4156146347522736e-01 -8.4503960609436035e-01</leafValues></_>
        <_>
          <internalNodes>
            0 -1 51 -1.4329061741591431e-05</internalNodes>
          <leafValues>
            1.8515902757644653e-01 -6.1119461059570313e-01</leafValues></_>
        <_>
          <internalNodes>
            0 -1 4 8.5034401854500175e-04</internalNodes>
          <leafValues>
            1.6822800040245056e-01 -7.5414496660232544e-01</leafValues></_>
        <_>
          <internalNodes>
            0 -1 45 -2.5870248209685087e-03</internalNodes>
          <leafValues>
            -6.8078029155731201e-01 1.5656174719333649e-01</leafValues></_>
        <_>
          <internalNodes>
            0 -1 11 1.0331056546419859e-03</internalNodes>
          <leafValues>
            1.3774393498897552e-01 -6.9752842187881470e-01</leafValues></_></weakClassifiers></_>
    <!-- stage 8 -->
    <_>
      <maxWeakCount>14</maxWeakCount>
      <stageThreshold>-1.6124231815338135e+00</stageThreshold>
      <weakClassifiers>
        <_>
          <internalNodes>
            0 -1 22 -6.2618274241685867e-03</internalNodes>
          <leafValues>
            2.2156107425689697e-01 -6.7477923631668091e-01</leafValues></_>
        <_>
          <internalNodes>
            0 -1 12 -8.4256082773208618e-02</internalNodes>
          <leafValues>
            4.8120981454849243e-01 -3.3771729469299316e-01</leafValues></_>
        <_>
          <internalNodes>
            0 -1 63 3.0898105353116989e-02</internalNodes>
          <leafValues>
            -2.5814461708068848e-01 5.1840966939926147e-01</leafValues></_>
        <_>
          <internalNodes>
            0 -1 8 1.3133902102708817e-03</internalNodes>
          <leafValues>
            2.0766152441501617e-01 -6.2439584732055664e-01</leafValues></_>
        <_>
          <internalNodes>
            0 -1 15 1.6075277235358953e-03</internalNodes>
          <leafValues>
            1.4545506238937378e-01 -8.1897974014282227e-01</leafValues></_>
        <_>
          <internalNodes>
            0 -1 21 -1.2076277926098555e-05</internalNodes>
          <leafValues>
            2.2521767020225525e-01 -4.6634429693222046e-01</leafValues></_>
        <_>
          <internalNodes>
            0 -1 36 1.4358788030222058e-03</internalNodes>
          <leafValues>
            1.5650385618209839e-01 -7.3872375488281250e-01</leafValues></_>
        <_>
          <internalNodes>
            0 -1 60 -1.3953718735137954e-05</internalNodes>
          <leafValues>
            1.2317331880331039e-01 -8.2191592454910278e-01</leafValues></_>
        <_>
          <internalNodes>
            0 -1 18 -1.7039122758433223e-03</internalNodes>
          <leafValues>
            -8.4359025955200195e-01 1.0010748356580734e-01</leafValues></_>
        <_>
          <internalNodes>
            0 -1 33 1.4775653835386038e-03</internalNodes>
          <leafValues>
            -5.4895484447479248e-01 1.8721140921115875e-01</leafValues></_>
        <_>
          <internalNodes>
            0 -1 52 -2.5975863536586985e-05</internalNodes>
          <leafValues>
            1.1436752974987030e-01 -8.2283109426498413e-01</leafValues></_>
        <_>
          <internalNodes>
            0 -1 61 1.3371241948334500e-05</internalNodes>
          <leafValues>
            -4.2944702506065369e-01 2.2171968221664429e-01</leafValues></_>
        <_>
          <internalNodes>
            0 -1 17 -2.2215189039707184e-01</internalNodes>
          <leafValues>
            8.4158802032470703e-01 -1.3669238984584808e-01</leafValues></_>
        <_>
          <internalNodes>
            0 -1 53 -2.0091027181479149e-05</internalNodes>
          <leafValues>
            1.5734244883060455e-01 -7.8149253129959106e-01</leafValues></_></weakClassifiers></_></stages>
  <features>
    <_>
      <rects>
        <_>
          0 0 6 4 -1.</_>
        <_>
          0 2 6 2 2.</_></rects>
      <tilted>0</tilted></_>
    <_>
      <rects>
        <_>
          0 0 24 24 -1.</_>
        <_>
          8 8 8 8 9.</_></rects>
      <tilted>0</tilted></_>
    <_>
      <rects>
        <_>
          0 0 23 24 -1.</_>
        <_>
          0 8 23 8 3.</_></rects>
      <tilted>0</tilted></_>
    <_>
      <rects>
        <_>
          0 6 3 15 -1.</_>
        <_>
          1 11 1 5 9.</_></rects>
      <tilted>0</tilted></_>
    <_>
      <rects>
        <_>
          0 6 6 4 -1.</_>
        <_>
          3 6 3 4 2.</_></rects>
      <tilted>0</tilted></_>
    <_>
      <rects>
        <_>
          0 9 12 13 -1.</_>
        <_>
          3 9 6 13 2.</_></rects>
      <tilted>0</tilted></_>
    <_>
      <rects>
        <_>
          0 10 24 8 -1.</_>
        <_>
          6 10 12 8 2.</_></rects>
      <tilted>0</tilted></_>
    <_>
      <rects>
        <_>
          0 15 2 9 -1.</_>
        <_>
          0 18 2 3 3.</_></rects>
      <tilted>0</tilted></_>
    <_>
      <rects>
        <_>
          1 0 2 24 -1.</_>
        <_>
          1 6 2 12 2.</_></rects>
      <tilted>0</tilted></_>
    <_>
      <rects>
        <_>
          1 16 12 4 -1.</_>
        <_>
          1 16 6 2 2.</_>
        <_>
          7 18 6 2 2.</_></rects>
      <tilted>0</tilted></_>
    <_>
      <rects>
        <_>
          1 19 4 5 -1.</_>
        <_>
          3 19 2 5 2.</_></rects>
      <tilted>0</tilted></_>
    <_>
      <rects>
        <_>
          1 20 8 3 -1.</_>
        <_>
          1 21 8 1 3.</_></rects>
      <tilted>0</tilted></_>
    <_>
      <rects>
        <_>
          2 7 12 2 -1.</_>
        <_>
          6 11 4 2 3.</_></rects>
      <tilted>1</tilted></_>
    <_>
      <rects>
        <_>
          2 8 12 1 -1.</_>
        <_>
          5 11 6 1 2.</_></rects>
      <tilted>1</tilted></_>
    <_>
      <rects>
        <_>
          2 13 4 8 -1.</_>
        <_>
          2 17 4 4 2.</_></rects>
      <tilted>0</tilted></_>
    <_>
      <rects>
        <_>
          3 6 6 8 -1.</_>
        <_>
          6 6 3 8 2.</_></rects>
      <tilted>0</tilted></_>
    <_>
      <rects>
        <_>
          4 0 1 12 -1.</_>
        <_>
          4 6 1 6 2.</_></rects>
      <tilted>0</tilted></_>
    <_>
      <rects>
        <_>
          4 7 12 4 -1.</_>
        <_>
          4 7 6 4 2.</_></rects>
      <tilted>1</tilted></_>
    <_>
      <rects>
        <_>
          4 14 2 4 -1.</_>
        <_>
          4 14 1 4 2.</_></rects>
      <tilted>1</tilted></_>
    <_>
      <rects>
        <_>
          5 0 13 3 -1.</_>
        <_>
          4 1 13 1 3.</_></rects>
      <tilted>1</tilted></_>
    <_>
      <rects>
        <_>
          6 12 9 6 -1.</_>
        <_>
          9 14 3 2 9.</_></rects>
      <tilted>0</tilted></_>
    <_>
      <rects>
        <_>
          6 21 4 1 -1.</_>
        <_>
          7 21 2 1 2.</_></rects>
      <tilted>0</tilted></_>
    <_>
      <rects>
        <_>
          6 21 9 3 -1.</_>
        <_>
          6 22 9 1 3.</_></rects>
      <tilted>0</tilted></_>
    <_>
      <rects>
        <_>
          7 0 2 2 -1.</_>
        <_>
          7 0 2 1 2.</_></rects>
      <tilted>1</tilted></_>
    <_>
      <rects>
        <_>
          7 7 1 15 -1.</_>
        <_>
          7 12 1 5 3.</_></rects>
      <tilted>0</tilted></_>
    <_>
      <rects>
        <_>
          7 20 2 2 -1.</_>
        <_>
          7 20 1 1 2.</_>
        <_>
          8 21 1 1 2.</_></rects>
      <tilted>0</tilted></_>
    <_>
      <rects>
        <_>
          7 20 9 4 -1.</_>
        <_>
          7 21 9 2 2.</_></rects>
      <tilted>0</tilted></_>
    <_>
      <rects>
        <_>
          7 21 1 2 -1.</_>
        <_>
          7 21 1 1 2.</_></rects>
      <tilted>1</tilted></_>
    <_>
      <rects>
        <_>
          8 1 8 20 -1.</_>
        <_>
          8 6 8 10 2.</_></rects>
      <tilted>0</tilted></_>
    <_>
      <rects>
        <_>
          8 10 2 8 -1.</_>
        <_>
          8 10 1 8 2.</_></rects>
      <tilted>1</tilted></_>
    <_>
      <rects>
        <_>
          8 13 6 8 -1.</_>
        <_>
          8 17 6 4 2.</_></rects>
      <tilted>0</tilted></_>
    <_>
      <rects>
        <_>
          8 15 2 4 -1.</_>
        <_>
          8 15 1 2 2.</_>
        <_>
          9 17 1 2 2.</_></rects>
      <tilted>0</tilted></_>
    <_>
      <rects>
        <_>
          8 17 3 4 -1.</_>
        <_>
          7 18 3 2 2.</_></rects>
      <tilted>1</tilted></_>
    <_>
      <rects>
        <_>
          8 18 6 3 -1.</_>
        <_>
          8 19 6 1 3.</_></rects>
      <tilted>0</tilted></_>
    <_>
      <rects>
        <_>
          8 20 2 2 -1.</_>
        <_>
          8 20 1 1 2.</_>
        <_>
          9 21 1 1 2.</_></rects>
      <tilted>0</tilted></_>
    <_>
      <rects>
        <_>
          8 21 9 3 -1.</_>
        <_>
          8 22 9 1 3.</_></rects>
      <tilted>0</tilted></_>
    <_>
      <rects>
        <_>
          9 0 4 11 -1.</_>
        <_>
          10 0 2 11 2.</_></rects>
      <tilted>0</tilted></_>
    <_>
      <rects>
        <_>
          9 0 5 20 -1.</_>
        <_>
          9 5 5 10 2.</_></rects>
      <tilted>0</tilted></_>
    <_>
      <rects>
        <_>
          9 11 2 10 -1.</_>
        <_>
          9 11 1 5 2.</_>
        <_>
          10 16 1 5 2.</_></rects>
      <tilted>0</tilted></_>
    <_>
      <rects>
        <_>
          9 12 4 1 -1.</_>
        <_>
          10 13 2 1 2.</_></rects>
      <tilted>1</tilted></_>
    <_>
      <rects>
        <_>
          9 15 7 8 -1.</_>
        <_>
          9 17 7 4 2.</_></rects>
      <tilted>0</tilted></_>
    <_>
      <rects>
        <_>
          10 1 3 20 -1.</_>
        <_>
          10 6 3 10 2.</_></rects>
      <tilted>0</tilted></_>
    <_>
      <rects>
        <_>
          10 20 4 1 -1.</_>
        <_>
          11 20 2 1 2.</_></rects>
      <tilted>0</tilted></_>
    <_>
      <rects>
        <_>
          11 0 12 11 -1.</_>
        <_>
          15 4 4 11 3.</_></rects>
      <tilted>1</tilted></_>
    <_>
      <rects>
        <_>
          11 20 1 3 -1.</_>
        <_>
          10 21 1 1 3.</_></rects>
      <tilted>1</tilted></_>
    <_>
      <rects>
        <_>
          11 23 6 1 -1.</_>
        <_>
          14 23 3 1 2.</_></rects>
      <tilted>0</tilted></_>
    <_>
      <rects>
        <_>
          12 3 11 9 -1.</_>
        <_>
          9 6 11 3 3.</_></rects>
      <tilted>1</tilted></_>
    <_>
      <rects>
        <_>
          12 5 8 11 -1.</_>
        <_>
          14 7 4 11 2.</_></rects>
      <tilted>1</tilted></_>
    <_>
      <rects>
        <_>
          12 6 10 6 -1.</_>
        <_>
          10 8 10 2 3.</_></rects>
      <tilted>1</tilted></_>
    <_>
      <rects>
        <_>
          12 10 12 8 -1.</_>
        <_>
          18 10 6 8 2.</_></rects>
      <tilted>0</tilted></_>
    <_>
      <rects>
        <_>
          12 14 3 4 -1.</_>
        <_>
          12 15 3 2 2.</_></rects>
      <tilted>0</tilted></_>
    <_>
      <rects>
        <_>
          13 20 2 1 -1.</_>
        <_>
          14 20 1 1 2.</_></rects>
      <tilted>0</tilted></_>
    <_>
      <rects>
        <_>
          14 9 2 8 -1.</_>
        <_>
          12 11 2 4 2.</_></rects>
      <tilted>1</tilted></_>
    <_>
      <rects>
        <_>
          14 14 2 8 -1.</_>
        <_>
          14 14 1 4 2.</_>
        <_>
          15 18 1 4 2.</_></rects>
      <tilted>0</tilted></_>
    <_>
      <rects>
        <_>
          14 15 2 6 -1.</_>
        <_>
          14 15 1 3 2.</_>
        <_>
          15 18 1 3 2.</_></rects>
      <tilted>0</tilted></_>
    <_>
      <rects>
        <_>
          15 6 8 9 -1.</_>
        <_>
          12 9 8 3 3.</_></rects>
      <tilted>1</tilted></_>
    <_>
      <rects>
        <_>
          15 16 2 4 -1.</_>
        <_>
          15 16 1 2 2.</_>
        <_>
          16 18 1 2 2.</_></rects>
      <tilted>0</tilted></_>
    <_>
      <rects>
        <_>
          15 17 1 2 -1.</_>
        <_>
          15 17 1 1 2.</_></rects>
      <tilted>1</tilted></_>
    <_>
      <rects>
        <_>
          16 16 2 4 -1.</_>
        <_>
          16 16 1 2 2.</_>
        <_>
          17 18 1 2 2.</_></rects>
      <tilted>0</tilted></_>
    <_>
      <rects>
        <_>
          17 3 7 12 -1.</_>
        <_>
          14 6 7 6 2.</_></rects>
      <tilted>1</tilted></_>
    <_>
      <rects>
        <_>
          17 14 1 3 -1.</_>
        <_>
          16 15 1 1 3.</_></rects>
      <tilted>1</tilted></_>
    <_>
      <rects>
        <_>
          18 13 2 1 -1.</_>
        <_>
          19 13 1 1 2.</_></rects>
      <tilted>0</tilted></_>
    <_>
      <rects>
        <_>
          20 7 3 12 -1.</_>
        <_>
          17 10 3 6 2.</_></rects>
      <tilted>1</tilted></_>
    <_>
      <rects>
        <_>
          23 4 1 10 -1.</_>
        <_>
          23 4 1 5 2.</_></rects>
      <tilted>1</tilted></_>
    <_>
      <rects>
        <_>
          23 5 1 16 -1.</_>
        <_>
          19 9 1 8 2.</_></rects>
      <tilted>1</tilted></_></features></cascade>
</opencv_storage>
